%YAML:1.0
my_svm: !!opencv-ml-svm
   svm_type: C_SVC
   kernel: { type:LINEAR }
   C: 1.
   term_criteria: { epsilon:1.1920928955078125e-07, iterations:1000 }
   var_all: 300
   var_count: 300
   class_count: 2
   class_labels: !!opencv-matrix
      rows: 1
      cols: 2
      dt: i
      data: [ 0, 1 ]
   sv_total: 1
   support_vectors:
      - [ -7.63515636e-05, -7.21869292e-05, -6.80223020e-05,
          -7.21869292e-05, -6.94105111e-05, -6.31635630e-05,
          -7.01046156e-05, -6.73281975e-05, -5.89989322e-05,
          -6.87164065e-05, -6.59399884e-05, -5.83048277e-05,
          -7.07987201e-05, -6.59399884e-05, -6.03871449e-05,
          -7.14928246e-05, -6.59399884e-05, -6.24694585e-05,
          -7.21869292e-05, -6.66340929e-05, -6.38576676e-05,
          -7.21869292e-05, -6.59399884e-05, -6.38576676e-05,
          -7.01046156e-05, -6.38576676e-05, -6.17753540e-05,
          -6.52458766e-05, -5.89989322e-05, -5.69166186e-05,
          -7.42692428e-05, -7.07987201e-05, -6.45517721e-05,
          -7.07987201e-05, -6.80223020e-05, -6.03871449e-05,
          -6.94105111e-05, -6.66340929e-05, -5.83048277e-05,
          -6.80223020e-05, -6.52458766e-05, -5.69166186e-05,
          -6.94105111e-05, -6.45517721e-05, -5.96930404e-05,
          -7.14928246e-05, -6.52458766e-05, -6.24694585e-05,
          -7.42692428e-05, -6.80223020e-05, -6.66340929e-05,
          -7.56574591e-05, -6.87164065e-05, -6.94105111e-05,
          -7.35751382e-05, -6.66340929e-05, -6.80223020e-05,
          -6.73281975e-05, -6.03871449e-05, -6.10812494e-05,
          -7.42692428e-05, -7.14928246e-05, -6.38576676e-05,
          -7.07987201e-05, -6.80223020e-05, -5.96930404e-05,
          -6.94105111e-05, -6.66340929e-05, -5.83048277e-05,
          -6.73281975e-05, -6.45517721e-05, -5.69166186e-05,
          -6.87164065e-05, -6.38576676e-05, -5.89989322e-05,
          -7.14928246e-05, -6.52458766e-05, -6.24694585e-05,
          -7.42692428e-05, -6.80223020e-05, -6.66340929e-05,
          -7.63515636e-05, -6.94105111e-05, -7.07987201e-05,
          -7.49633546e-05, -6.80223020e-05, -6.94105111e-05,
          -6.87164065e-05, -6.17753540e-05, -6.31635630e-05,
          -7.35751382e-05, -7.07987201e-05, -6.31635630e-05,
          -7.07987201e-05, -6.80223020e-05, -6.03871449e-05,
          -6.94105111e-05, -6.66340929e-05, -5.89989322e-05,
          -6.73281975e-05, -6.45517721e-05, -5.76107232e-05,
          -6.87164065e-05, -6.45517721e-05, -5.83048277e-05,
          -7.14928246e-05, -6.59399884e-05, -6.10812494e-05,
          -7.42692428e-05, -6.80223020e-05, -6.66340929e-05,
          -7.63515636e-05, -6.94105111e-05, -7.01046156e-05,
          -7.56574591e-05, -6.87164065e-05, -7.01046156e-05,
          -7.21869292e-05, -6.52458766e-05, -6.66340929e-05,
          -7.35751382e-05, -7.07987201e-05, -6.45517721e-05,
          -7.07987201e-05, -6.80223020e-05, -6.10812494e-05,
          -6.94105111e-05, -6.66340929e-05, -5.96930404e-05,
          -6.73281975e-05, -6.45517721e-05, -5.76107232e-05,
          -6.87164065e-05, -6.38576676e-05, -5.83048277e-05,
          -7.14928246e-05, -6.59399884e-05, -6.03871449e-05,
          -7.42692428e-05, -6.80223020e-05, -6.66340929e-05,
          -7.63515636e-05, -6.94105111e-05, -7.07987201e-05,
          -7.63515636e-05, -6.94105111e-05, -7.07987201e-05,
          -7.49633546e-05, -6.80223020e-05, -6.94105111e-05,
          -7.42692428e-05, -7.14928246e-05, -6.45517721e-05,
          -7.07987201e-05, -6.80223020e-05, -6.10812494e-05,
          -6.94105111e-05, -6.66340929e-05, -5.96930404e-05,
          -6.80223020e-05, -6.52458766e-05, -5.83048277e-05,
          -6.94105111e-05, -6.45517721e-05, -5.89989322e-05,
          -7.07987201e-05, -6.59399884e-05, -6.10812494e-05,
          -7.42692428e-05, -6.73281975e-05, -6.52458766e-05,
          -7.77397727e-05, -6.87164065e-05, -6.94105111e-05,
          -7.84338772e-05, -6.94105111e-05, -7.07987201e-05,
          -7.77397727e-05, -6.87164065e-05, -6.94105111e-05,
          -7.42692428e-05, -7.14928246e-05, -6.45517721e-05,
          -7.14928246e-05, -6.87164065e-05, -6.17753540e-05,
          -7.21869292e-05, -6.94105111e-05, -6.24694585e-05,
          -6.94105111e-05, -6.66340929e-05, -5.96930404e-05,
          -7.01046156e-05, -6.52458766e-05, -5.96930404e-05,
          -7.07987201e-05, -6.59399884e-05, -6.10812494e-05,
          -7.35751382e-05, -6.59399884e-05, -6.31635630e-05,
          -7.77397727e-05, -6.59399884e-05, -6.66340929e-05,
          -7.91279817e-05, -6.73281975e-05, -6.80223020e-05,
          -7.91279817e-05, -6.73281975e-05, -6.80223020e-05,
          -7.35751382e-05, -7.14928246e-05, -6.31635630e-05,
          -7.28810337e-05, -6.94105111e-05, -6.31635630e-05,
          -7.56574591e-05, -7.28810337e-05, -6.59399884e-05,
          -7.01046156e-05, -6.73281975e-05, -6.03871449e-05,
          -7.01046156e-05, -6.52458766e-05, -5.96930404e-05,
          -7.14928246e-05, -6.66340929e-05, -6.03871449e-05,
          -7.28810337e-05, -6.52458766e-05, -6.24694585e-05,
          -7.56574591e-05, -6.45517721e-05, -6.45517721e-05,
          -7.70456681e-05, -6.52458766e-05, -6.59399884e-05,
          -7.77397727e-05, -6.59399884e-05, -6.66340929e-05,
          -7.35751382e-05, -7.07987201e-05, -6.31635630e-05,
          -7.56574591e-05, -7.21869292e-05, -6.66340929e-05,
          -7.84338772e-05, -7.49633546e-05, -6.94105111e-05,
          -7.07987201e-05, -6.73281975e-05, -6.17753540e-05,
          -6.94105111e-05, -6.45517721e-05, -5.96930404e-05,
          -7.07987201e-05, -6.59399884e-05, -6.10812494e-05,
          -7.35751382e-05, -6.52458766e-05, -6.24694585e-05,
          -7.56574591e-05, -6.38576676e-05, -6.45517721e-05,
          -7.63515636e-05, -6.38576676e-05, -6.52458766e-05,
          -7.63515636e-05, -6.45517721e-05, -6.59399884e-05,
          -7.56574591e-05, -7.35751382e-05, -6.38576676e-05,
          -7.84338772e-05, -7.56574591e-05, -6.80223020e-05,
          -7.98220863e-05, -7.70456681e-05, -6.87164065e-05,
          -7.35751382e-05, -7.07987201e-05, -6.45517721e-05,
          -7.01046156e-05, -6.52458766e-05, -6.17753540e-05,
          -7.35751382e-05, -6.80223020e-05, -6.45517721e-05,
          -7.28810337e-05, -6.45517721e-05, -6.31635630e-05,
          -7.56574591e-05, -6.38576676e-05, -6.52458766e-05,
          -7.56574591e-05, -6.38576676e-05, -6.59399884e-05,
          -7.56574591e-05, -6.38576676e-05, -6.59399884e-05 ]
   decision_functions:
      -
         sv_count: 1
         rho: -1.
         alpha: [ 1. ]
         index: [ 0 ]
