%YAML:1.0
my_svm: !!opencv-ml-svm
   svm_type: C_SVC
   kernel: { type:LINEAR }
   C: 1.
   term_criteria: { epsilon:1.1920928955078125e-07, iterations:1000 }
   var_all: 75
   var_count: 75
   class_count: 2
   class_labels: !!opencv-matrix
      rows: 1
      cols: 2
      dt: i
      data: [ 0, 1 ]
   sv_total: 1
   support_vectors:
      - [ 3.59442492e-04, 7.57913338e-04, -1.74643192e-03,
          -9.05361157e-05, 8.94312223e-04, -1.71375019e-03,
          2.33592335e-04, 6.90482964e-04, -1.75942702e-03,
          -4.31410503e-04, 5.79250220e-04, -2.18034792e-03,
          1.26602140e-03, 6.94135961e-04, -1.85723125e-03,
          3.63985891e-04, 1.34911435e-03, -1.11099286e-03,
          -1.07197840e-04, 8.80085106e-04, -1.33812753e-03,
          2.71032623e-04, 1.31004211e-03, -9.05669876e-04,
          3.11262353e-04, 5.67230571e-04, -1.65817607e-03,
          3.45859007e-04, 5.23062481e-04, -1.86242885e-03,
          -9.67179018e-04, 3.14396020e-04, -2.10059271e-03,
          -8.43693269e-04, 4.50997439e-04, -1.68557558e-03,
          -6.94585906e-04, 4.21937031e-04, -1.58816064e-03,
          -2.84270180e-04, 5.72673103e-04, -1.47208979e-03,
          -1.45021491e-04, 2.80534645e-04, -2.00767629e-03,
          9.19084559e-05, 6.85624545e-04, -1.77373644e-03,
          4.66585276e-04, 1.10691390e-03, -1.05686451e-03,
          -2.96167680e-04, 8.62446730e-04, -1.30623032e-03,
          -1.55473626e-05, 9.58900258e-04, -1.21158746e-03,
          5.85553993e-04, 1.36921590e-04, -1.94634451e-03,
          6.34104799e-05, 5.62703295e-04, -1.92074198e-03,
          1.77446709e-04, 6.80539059e-04, -1.82982755e-03,
          3.93067981e-04, 9.49321256e-04, -1.51316181e-03,
          5.29135927e-04, 6.57770783e-04, -1.80019997e-03,
          5.56705752e-04, -7.77109308e-05, -2.59098061e-03 ]
   decision_functions:
      -
         sv_count: 1
         rho: -5.2909824148740787e+00
         alpha: [ 1. ]
         index: [ 0 ]
