%YAML:1.0
my_svm: !!opencv-ml-svm
   svm_type: C_SVC
   kernel: { type:LINEAR }
   C: 1.
   term_criteria: { epsilon:1.1920928955078125e-07, iterations:1000 }
   var_all: 75
   var_count: 75
   class_count: 2
   class_labels: !!opencv-matrix
      rows: 1
      cols: 2
      dt: i
      data: [ 0, 1 ]
   sv_total: 1
   support_vectors:
      - [ 2.31016544e-03, 2.81581568e-04, -3.09002702e-03,
          1.70353847e-03, -7.53947825e-04, -5.55813422e-05,
          2.05701962e-03, -9.78534925e-04, -9.58677090e-04,
          -6.96306699e-04, -5.42404654e-04, -1.01024285e-03,
          4.23721550e-03, -2.87227682e-03, -2.37939716e-03,
          -2.09251000e-03, -2.34247549e-04, 3.96290088e-05,
          -8.29686527e-04, 8.77376006e-04, -9.65716376e-04,
          -2.11607898e-03, 2.03138479e-04, -6.86030544e-04,
          6.70373498e-04, -2.07129121e-03, 9.05643392e-04,
          -2.10079527e-03, 1.24990370e-03, 1.65585137e-04,
          7.50782376e-04, 6.94163959e-04, -1.16893591e-03,
          -1.29119580e-04, -5.41989284e-04, -1.20127737e-03,
          -1.13919668e-04, 4.70849154e-05, 4.00510791e-04,
          -1.16868399e-03, -6.76833093e-04, 1.39624556e-03,
          -2.21814451e-04, 9.57216136e-04, -1.29932270e-03,
          -1.39510375e-03, 1.09746668e-03, -4.94422973e-04,
          8.24669405e-05, -1.44323718e-03, 1.49253116e-03,
          -1.06278574e-04, 1.17853051e-03, -6.28242909e-04,
          -1.27320911e-03, 1.08469732e-03, -1.05803320e-03,
          1.54304702e-03, -3.84025928e-03, -1.03620533e-03,
          2.25571217e-03, -1.64808834e-03, -1.25653960e-03,
          2.04613316e-03, -1.43417821e-03, -1.34501816e-03,
          2.32615462e-03, -2.29966105e-03, -7.02984980e-04,
          2.04707310e-03, -8.88782670e-04, -1.36091979e-03,
          3.63027747e-03, -8.13060615e-04, -2.82370509e-03 ]
   decision_functions:
      -
         sv_count: 1
         rho: -5.4968874826477778e+00
         alpha: [ 1. ]
         index: [ 0 ]
