%YAML:1.0
my_svm: !!opencv-ml-svm
   svm_type: C_SVC
   kernel: { type:LINEAR }
   C: 1.
   term_criteria: { epsilon:1.1920928955078125e-07, iterations:1000 }
   var_all: 300
   var_count: 300
   class_count: 2
   class_labels: !!opencv-matrix
      rows: 1
      cols: 2
      dt: i
      data: [ 0, 1 ]
   sv_total: 1
   support_vectors:
      - [ 4.48147207e-03, 3.83802783e-03, 7.13979010e-04, 1.49481348e-03,
          1.31056621e-03, -1.50543766e-03, -5.11092017e-04,
          -4.38357150e-04, -2.49945954e-03, 1.28089858e-03,
          1.50594080e-03, -6.71566988e-04, 2.88237818e-03,
          4.20788629e-03, 1.51848979e-03, 1.70225964e-03, 2.65074545e-03,
          6.91067427e-04, -1.71411340e-03, 1.33101828e-03,
          -1.23206771e-03, -4.19007754e-03, 2.17560702e-03,
          3.15847021e-04, -2.42296793e-03, 3.98829253e-03,
          2.58201268e-03, -3.52021586e-03, 1.65426952e-03,
          8.33225029e-04, 1.10880320e-03, 1.76264171e-03,
          -2.03545811e-03, 5.23934606e-04, 1.28107739e-03,
          -1.05645123e-03, 3.32769734e-04, 1.15564361e-03,
          -1.34397531e-04, 2.99762323e-04, 9.57040291e-04,
          2.34070132e-04, 1.77213422e-03, 1.67096546e-03, 5.66393486e-04,
          -3.69653601e-04, -1.98488939e-03, -2.47319392e-03,
          -1.52584433e-03, -7.28778075e-04, -2.15670699e-03,
          -3.49146081e-03, 3.63478670e-04, -2.15857435e-04,
          -3.36734275e-03, 6.29912713e-04, 1.71207575e-05,
          -3.45902843e-03, 9.42324550e-05, -3.23839864e-04,
          -2.52450234e-03, -1.27746200e-03, -6.02996629e-03,
          5.74643665e-04, 1.54828327e-03, -7.05991464e-04,
          1.27142423e-03, 2.82756588e-03, 1.73976657e-03,
          -6.94438640e-04, 6.99633791e-04, 6.69097120e-04,
          2.87463586e-03, 2.87899561e-03, 2.97725014e-03,
          -6.64460124e-04, -2.30741384e-03, -2.35897326e-03,
          -2.57575419e-03, -1.78927789e-03, -2.92066205e-03,
          1.70775701e-03, 5.19867288e-03, 4.69682878e-03, 3.50634975e-04,
          2.65829102e-03, 2.01811129e-03, -2.28186185e-03,
          9.49764508e-05, -3.64270731e-04, 4.40073607e-04,
          1.31680712e-03, -2.53899721e-03, -2.25574506e-04,
          9.29231639e-04, -9.97504452e-04, -1.46348216e-03,
          -4.72234300e-04, -1.02614297e-03, -2.39869906e-03,
          -1.65620621e-03, -1.09154289e-03, 1.05917046e-03,
          1.42149732e-03, 1.26370054e-03, 3.13427718e-03, 1.93051726e-03,
          1.74584344e-03, 1.27657689e-03, 2.03247508e-03, 6.72424561e-04,
          4.69753606e-04, 2.97230505e-03, 2.46464042e-03,
          -1.49025465e-03, -2.17434936e-04, -2.68583681e-04,
          -1.77108624e-03, -5.53195132e-04, -1.60769944e-03,
          4.48551588e-03, 2.77315755e-03, 9.99383163e-04, 2.02463986e-03,
          1.14881557e-04, -8.32537844e-05, -1.07331818e-03,
          -4.22819378e-03, -2.24297633e-03, 4.16708092e-04,
          -2.31824373e-03, -1.33877713e-03, -4.96965484e-04,
          -2.42253509e-03, -1.94908469e-03, 4.73540895e-05,
          -2.68090074e-03, -1.56483578e-03, 1.45476637e-03,
          7.11939065e-04, 6.79556906e-05, 1.76350225e-03, 2.87091732e-03,
          3.71052162e-03, 4.62777331e-04, 1.13410270e-03, 2.81136041e-03,
          -1.69337948e-03, -1.56003074e-03, -2.12157283e-06,
          5.58502506e-03, 3.96464719e-03, 1.08259893e-03, 2.23532948e-03,
          6.93579641e-05, -1.46662781e-03, 5.26450807e-04,
          -3.16583179e-03, -2.23978120e-03, -1.77994987e-03,
          -5.64796943e-03, -4.79472335e-03, -2.05738423e-03,
          -4.05457150e-03, -3.75924981e-03, 1.25408161e-03,
          -1.86532689e-03, -6.64198713e-04, 3.38165963e-04,
          -6.44535350e-04, -1.30204472e-03, -3.03533999e-03,
          -2.15700269e-03, -2.10372615e-03, -1.28327881e-03,
          -4.65861551e-04, 6.67274231e-04, 2.27050376e-04,
          6.10808260e-04, 1.85708946e-03, 3.02915322e-03, 1.79316499e-03,
          -8.48682830e-04, -1.86319056e-04, -1.41988113e-03,
          -3.37106688e-03, 3.49884969e-03, 9.72474576e-04,
          6.76445721e-04, 1.90305372e-03, 4.50683496e-04,
          -5.45518240e-04, -8.84782203e-05, -1.64501392e-03,
          -2.56879954e-03, 2.91550579e-03, 5.51568926e-04,
          9.25729517e-04, 2.79803504e-03, 2.19233287e-03, 1.33140467e-03,
          -3.05603957e-03, -2.01393408e-03, -1.57332083e-03,
          -8.92322219e-04, -2.61187699e-04, 1.24045112e-03,
          1.56740425e-03, 2.43916200e-03, 2.21559778e-03, 6.53187861e-04,
          -2.01016825e-04, -4.93324653e-04, -3.09219817e-03,
          -3.16284318e-03, -3.01665394e-03, -1.44350008e-04,
          -1.24436640e-03, -2.87505187e-04, -7.36264628e-04,
          -1.21143332e-03, -2.30574026e-03, 4.00311500e-03,
          2.84756557e-03, 1.27739529e-03, -3.57605808e-04,
          -2.14613788e-03, -1.68687571e-03, 1.14787535e-05,
          -4.71752923e-04, -7.13633315e-04, -4.79803421e-05,
          1.32266141e-03, 1.57411140e-03, -3.92449088e-04,
          1.62389281e-03, 1.98767195e-03, 3.23664094e-03, 4.59722383e-03,
          2.93606846e-03, 1.88417733e-03, 1.24342507e-03, 1.86382188e-03,
          5.34460705e-04, 9.91527922e-04, 5.21395705e-04, 1.37766916e-03,
          1.20043522e-03, 2.23873765e-03, 6.03112392e-04,
          -1.26304396e-03, -8.26341216e-04, 5.05072018e-03,
          1.87362533e-03, 1.13172689e-03, 1.06212136e-03,
          -1.96438003e-03, -1.30377314e-03, -4.44705620e-05,
          -7.45085650e-04, -2.26230104e-03, -2.76783621e-03,
          -1.56304997e-03, -3.39249498e-03, 5.85850212e-04,
          1.69212860e-03, -5.62464993e-04, 1.90996460e-03,
          1.20276969e-03, -2.24828487e-03, -3.60765785e-04,
          -5.65170718e-04, -2.07199017e-03, 2.72142846e-04,
          1.18611602e-03, -1.80712726e-03, -1.35569857e-03,
          -1.14598847e-03, -2.09071115e-03, 2.82268599e-03,
          8.61489039e-04, 1.37029728e-03, 6.63346937e-03, 2.42607458e-03,
          4.20603575e-03, 3.27437557e-03, -5.70066513e-05,
          1.08529336e-03, -8.94274563e-04, -7.76439614e-04,
          -2.55675660e-03, -1.56945526e-03, 7.98478897e-04,
          -2.43857293e-03, 1.88635325e-03, 1.59966655e-03,
          -1.59215438e-03, 5.37606049e-03, 3.32627748e-03,
          -5.90013922e-04 ]
   decision_functions:
      -
         sv_count: 1
         rho: 8.0859457061441269e+00
         alpha: [ 1. ]
         index: [ 0 ]
