%YAML:1.0
my_svm: !!opencv-ml-svm
   svm_type: C_SVC
   kernel: { type:LINEAR }
   C: 1.
   term_criteria: { epsilon:1.1920928955078125e-07, iterations:1000 }
   var_all: 75
   var_count: 75
   class_count: 2
   class_labels: !!opencv-matrix
      rows: 1
      cols: 2
      dt: i
      data: [ 0, 1 ]
   sv_total: 1
   support_vectors:
      - [ -1.72132906e-03, -9.59264406e-04, 9.61229962e-04,
          -1.55493035e-03, -3.67065053e-03, 1.72874751e-03,
          -2.15069088e-03, 5.84530178e-04, 2.38788920e-03,
          -1.85717398e-03, -1.58115535e-03, 1.40850712e-03,
          1.49243162e-03, -2.04859790e-03, 6.57259719e-04,
          -3.37152684e-04, -8.99368082e-04, -1.35283975e-03,
          3.69683694e-04, -1.04754954e-03, 9.20991472e-04,
          -2.33472162e-03, 6.83331804e-04, 6.93348062e-04,
          -1.29721349e-03, -3.48218222e-04, 2.52061320e-04,
          6.21481566e-04, -2.38706288e-03, 8.06882017e-05,
          2.02437048e-03, -7.02451449e-04, -1.81349646e-03,
          3.37159121e-03, -9.91597073e-04, -2.29469757e-03,
          -8.95231322e-04, 6.98333664e-04, -3.16007226e-03,
          8.63615860e-05, -8.73957397e-05, 2.02304145e-04,
          2.98548053e-04, -1.07360759e-03, -9.38376994e-04,
          9.96399205e-04, -7.56965252e-04, -1.35502778e-03,
          1.03534595e-03, -1.79303915e-03, -1.52895646e-03,
          -3.84352723e-04, 4.17765288e-04, -1.22491049e-03,
          7.73541920e-04, -1.95594635e-04, -2.23234601e-04,
          -4.60299547e-04, 5.73441212e-04, 2.83022790e-04,
          -1.52895239e-03, 1.93259481e-03, 2.19988739e-04,
          -1.30242540e-03, -8.45189672e-04, 1.69596297e-03,
          -2.47286865e-03, 1.67043589e-03, -1.63187549e-04,
          -3.04977497e-04, 3.69613874e-04, -9.70275258e-04,
          -2.57772882e-03, 8.07616801e-04, -4.86817880e-05 ]
   decision_functions:
      -
         sv_count: 1
         rho: -4.1322050643854125e+00
         alpha: [ 1. ]
         index: [ 0 ]
