%YAML:1.0
my_svm: !!opencv-ml-svm
   svm_type: C_SVC
   kernel: { type:LINEAR }
   C: 1.
   term_criteria: { epsilon:1.1920928955078125e-07, iterations:1000 }
   var_all: 75
   var_count: 75
   class_count: 2
   class_labels: !!opencv-matrix
      rows: 1
      cols: 2
      dt: i
      data: [ 0, 1 ]
   sv_total: 1
   support_vectors:
      - [ 6.06492278e-04, 2.56787898e-04, -2.73717754e-03,
          6.68289780e-04, 7.98136462e-04, -2.03346624e-03,
          2.60131812e-04, 1.67670645e-04, -2.63987295e-03,
          4.49551735e-04, -4.24430997e-04, -2.99697719e-03,
          3.53459152e-04, 1.42938530e-04, -2.47483794e-03,
          3.95236915e-04, 3.12100543e-04, -2.78175110e-03,
          7.71228515e-04, 1.26611593e-03, -1.74851378e-03,
          2.53579667e-04, 6.99754688e-04, -2.44922889e-03,
          2.07917532e-04, 3.35700868e-04, -2.67063407e-03,
          9.38475423e-05, 4.94763430e-04, -2.50947638e-03,
          6.89009903e-04, 5.92788507e-04, -2.53934157e-03,
          4.22020588e-04, 6.69325003e-04, -2.16440926e-03,
          3.95990974e-05, 5.86182927e-04, -2.40901951e-03,
          1.06119398e-04, 1.16334157e-03, -1.95441325e-03,
          5.68718009e-04, 9.03712760e-04, -1.69879827e-03,
          3.11342679e-04, 4.90822655e-04, -2.22853525e-03,
          3.37015626e-05, 4.54503956e-04, -1.88524905e-03,
          6.32743118e-04, 9.43561376e-04, -1.22446218e-03,
          1.67414459e-04, 1.24108524e-03, -1.49511721e-03,
          1.14175177e-03, 1.51400245e-03, -6.74233306e-04,
          5.47682226e-04, 1.87633195e-04, -2.58069602e-03,
          8.38526001e-04, 5.27765893e-04, -2.24803342e-03,
          8.95726436e-04, 5.30460034e-04, -1.92837219e-03,
          3.80647543e-04, 1.61848613e-04, -2.48188758e-03,
          1.01459527e-03, 4.84542834e-04, -1.51114794e-03 ]
   decision_functions:
      -
         sv_count: 1
         rho: -7.5486952931531306e+00
         alpha: [ 1. ]
         index: [ 0 ]
