%YAML:1.0
my_svm: !!opencv-ml-svm
   svm_type: C_SVC
   kernel: { type:LINEAR }
   C: 1.
   term_criteria: { epsilon:1.1920928955078125e-07, iterations:1000 }
   var_all: 300
   var_count: 300
   class_count: 2
   class_labels: !!opencv-matrix
      rows: 1
      cols: 2
      dt: i
      data: [ 0, 1 ]
   sv_total: 1
   support_vectors:
      - [ 1.54280581e-03, -2.23569316e-03, -1.12115126e-03,
          3.80899361e-03, 4.14016075e-04, 6.50815433e-04, 1.69254816e-03,
          -1.89327367e-03, -5.97375794e-04, 2.04256130e-03,
          -1.85127615e-03, 1.58156981e-04, 2.26451899e-03,
          -1.24939310e-03, -1.96887850e-04, 1.92059146e-03,
          -6.28514739e-04, -4.09465923e-04, 2.09852960e-03,
          -1.13375788e-03, -9.33342148e-04, 2.93239928e-03,
          -6.41902909e-04, -1.00031274e-03, 2.65537226e-03,
          -8.17366934e-04, -1.04957819e-03, 1.24719215e-03,
          -3.69838462e-03, -2.68290774e-03, 1.48017111e-03,
          -1.72968092e-03, -1.44348328e-03, 6.95992261e-04,
          -2.19980348e-03, -2.33467412e-03, 2.54410808e-03,
          -7.45160098e-04, 4.49344050e-04, 1.80371222e-03,
          -2.13066419e-03, -3.12257558e-04, 1.71839423e-03,
          -1.52057887e-03, 2.27942000e-05, 5.25098643e-04,
          -2.20104842e-03, -1.50515244e-03, 1.02570304e-03,
          -1.15767098e-03, -8.50229699e-04, 7.73508393e-04,
          -1.49497075e-03, -1.30294671e-03, 1.08045770e-03,
          -1.64053496e-03, -5.14201820e-04, 1.60204154e-03,
          -2.27418286e-03, -1.15323397e-04, 3.85153759e-03,
          9.88144195e-04, 1.01669435e-03, 3.30896047e-03,
          -7.92422565e-04, -4.80830029e-04, 1.83767150e-03,
          -1.35408028e-03, -8.92806740e-04, 1.00688008e-03,
          -2.76767858e-03, -2.99544889e-03, 2.12620106e-03,
          2.88030977e-04, -2.04947719e-04, 1.11308019e-03,
          -9.38037920e-05, -9.72112612e-05, 1.06622640e-03,
          6.85807890e-06, 1.99248476e-04, 2.44474295e-03, 3.65271146e-04,
          -1.83623590e-04, 1.04529934e-03, -1.77719991e-03,
          -1.45312585e-03, 2.26244726e-03, 2.37405698e-06,
          5.85150963e-04, -1.05439416e-04, -2.61917734e-03,
          -1.30047917e-03, 1.32874551e-03, -1.98763795e-03,
          -2.16845205e-04, 1.11095456e-03, -1.81201285e-05,
          2.89697084e-04, 8.36732564e-04, 1.92611813e-04, 2.90499938e-05,
          5.63988260e-06, -1.13738305e-03, -1.53841788e-03,
          1.69595017e-03, 7.78093876e-04, 6.50948554e-04, 5.54121158e-04,
          -5.37040760e-04, -9.80595360e-04, 1.37616228e-03,
          -8.19932087e-04, -1.24053319e-03, 2.83943489e-03,
          8.66969523e-04, -9.35821008e-05, 1.31990737e-03,
          -7.66467769e-04, -5.14214451e-04, 8.47708201e-04,
          -4.37924318e-05, -2.12169296e-04, 7.75301422e-04,
          -5.92542230e-04, -6.55366282e-04, 3.52297968e-04,
          -2.95146834e-04, -1.23003824e-03, 1.36854616e-03,
          9.69075481e-04, 1.07283588e-03, 1.62465509e-03,
          -1.13957701e-03, -4.31485241e-04, -2.35863074e-04,
          -1.72591186e-03, -7.90883903e-04, 1.15624699e-03,
          1.01044029e-03, 5.57597785e-04, 5.98630053e-04, 2.60805624e-04,
          -9.93259717e-04, 1.37349078e-03, 2.97801744e-04,
          -1.29129598e-03, 1.00376143e-03, 3.44464701e-04,
          -1.56162714e-04, 1.50302716e-03, 1.24425918e-04,
          -2.93969933e-04, 1.40954426e-03, 1.90535808e-04,
          8.28972625e-05, 8.96007987e-04, -7.13429399e-05,
          3.42316809e-04, 1.93341554e-03, -4.77045032e-05,
          1.26519206e-03, 1.21250679e-03, -1.19672518e-03,
          -5.45812713e-04, 2.29293969e-03, 1.16634314e-04,
          5.26727061e-04, -1.94503955e-04, -1.71743135e-03,
          -2.19279388e-03, 9.54509887e-04, 1.04387058e-03,
          5.54053753e-04, -8.23864772e-04, -1.75619952e-03,
          -1.60111580e-03, 1.27729471e-03, 2.78923515e-04,
          3.31240211e-04, 8.12639599e-04, -2.93103768e-03,
          -2.35219393e-03, 2.48480379e-03, 5.92693570e-04,
          1.29757926e-03, 1.21479423e-03, -9.93778463e-04,
          1.86427715e-05, 1.03942363e-03, -1.13599200e-03,
          5.14078129e-04, 1.91146974e-03, -1.01129944e-03,
          -1.79236842e-04, -2.26853721e-04, 3.61025101e-04,
          -5.42112801e-04, -2.86047201e-04, 6.65404077e-04,
          -2.84956623e-04, 2.27415236e-03, 1.66191394e-03,
          1.56272668e-03, -8.83540852e-05, -1.50559854e-03,
          -8.79193758e-05, 8.64655478e-04, -8.54865066e-04,
          -3.68448586e-04, 2.05001840e-03, -3.34336795e-03,
          -2.93974136e-03, 2.28666747e-03, -5.49533521e-04,
          3.28722730e-04, 1.17133651e-03, -1.16352236e-03,
          -1.00280216e-03, 1.45709922e-03, -1.04945549e-03,
          -1.16041920e-03, 1.20994251e-03, -4.66538797e-04,
          -1.25813321e-03, 3.60233971e-04, 7.37853872e-04,
          -1.41946285e-03, 9.87288731e-05, 1.16526079e-03,
          -1.26127538e-03, -1.16693240e-03, -1.22675498e-03,
          -2.23834836e-03, 3.76951466e-05, -1.04797049e-03,
          -8.64461763e-04, 3.62235383e-04, -1.14989048e-03,
          1.15694922e-04, 3.47744138e-03, -3.78602359e-04,
          -2.11841590e-03, 2.69623310e-03, -3.13132128e-04,
          -3.12625198e-04, 2.55392678e-03, -7.33612571e-04,
          -7.65609031e-04, 9.11174866e-04, -7.76109286e-04,
          -3.15775571e-04, 2.41792505e-03, 1.20135595e-03,
          6.96551113e-04, 8.81588552e-04, 3.41300358e-04,
          -1.09863735e-03, 2.18501035e-03, 5.16706612e-04,
          -5.94498648e-04, 7.72529864e-04, -3.53813462e-04,
          -2.45440460e-04, 2.56088306e-03, 1.04095298e-03,
          2.16182950e-03, 1.51876605e-03, -1.33559015e-03,
          -7.22598925e-04, 1.74937898e-03, -1.09655771e-03,
          -1.88598246e-03, 1.58543466e-03, -7.80739763e-04,
          -1.73364091e-03, 1.72655727e-03, -1.23757136e-03,
          -1.82632566e-03, 7.13403686e-04, -1.33932545e-03,
          -1.16762822e-03, 2.83520506e-03, 1.45513203e-03,
          3.79786099e-04, 7.28645711e-04, -3.47193738e-04,
          -2.67810677e-03, 9.26528824e-04, -1.13317405e-03,
          -2.37769936e-03, 1.07748085e-03, -1.67570927e-03,
          -1.75509928e-03, 3.34841723e-04, -1.75145350e-03,
          -9.15318029e-04, 1.87921873e-03, -1.36832858e-03,
          -4.46683553e-04 ]
   decision_functions:
      -
         sv_count: 1
         rho: -1.4274021499876019e+01
         alpha: [ 1. ]
         index: [ 0 ]
